[{"size":10.0,"type":1},{"size":13.0,"activation":0,"bias":[0.11205305160023279,-0.07562718836280205,-0.054949731488401668,0.13174183687505625,0.43987528522809349,0.17799723058938988,-0.097639782211432838,0.089078901158645807,-0.13194050274168448,-0.57078856219227114,-0.020001611967260604,-0.16038767833883566,-0.2712849148766448],"weights":[[0.3459683058007309,0.051753369861592832,-0.30934042725091171,0.37328038141131398,0.34525059775138889,-0.4959533932525666,-0.192078615774711,-0.19668453191096585,-0.067148994260157149,-0.15155465491116046,-0.3486860531847924,-0.17028309707529843,-0.1765439361333847],[-0.005711235006650316,0.36497222569771098,-0.50196273417212078,-0.54096906208122775,0.16346505079107979,0.053780350880697367,0.021353425169363598,-0.098696019798517193,-0.14849022688033686,0.3964537000097334,0.19144987780600786,0.34306007204577327,-0.22965937620028853],[0.12868240380349252,-0.11135734696562091,0.087287137570480483,0.244731384270514,-0.31200973005344484,-0.38663010425865652,0.031287644542753706,0.28555275954306125,-0.035382549390196812,0.14027437058898309,0.054698172258213162,0.25138349155895412,0.4149992479942739],[0.33076570864766847,-0.29913514231331639,0.3968540154894194,-0.35701309886761007,-0.4614232454045365,0.085752286631614008,0.13886592291605965,0.35465350081833696,0.12788613790335759,-0.3316199551181247,0.37314851162955165,0.35244645830243826,0.27285368903540075],[0.31407606913708147,0.43770443647789464,-0.061906320511673898,-0.036847553858533479,-0.36333131321084977,-0.45757467560780551,-0.097095478884875769,-0.10788679118889075,0.42008195707574503,0.29858470448292795,-0.015691672451794147,0.44028006144799292,-0.039917896036058664],[-0.31136301419076812,0.040473869197691477,0.11594337638777993,0.39407920818155001,-0.031331865756462018,0.37439902914377543,0.20034485276167585,-0.3152741051682581,0.46272241892603544,0.46835636421727639,-0.28299114643596113,-0.19780632178299129,-0.49978235480375588],[-0.25797407088801266,-0.25235086593776945,-0.36844902634931109,0.068023721752688282,-0.33956280800513922,-0.19207112567809725,-0.093100501311322054,0.16166910300031306,-0.051226737260197608,0.094304187192271127,0.29808256751857698,-0.49788696924224496,-0.32968495902605355],[0.52977289432349295,0.098826991263777017,-0.29594177598754567,-0.1350152357605596,0.38957089797593653,0.4132422103981177,-0.055570334441338992,-0.041481119167680519,-0.083326407186687018,-0.31927723169947669,-0.42546666692942381,-0.36653880286030471,-0.092657189583405852],[-0.42854756438794223,-0.075467455005273229,0.32763046263717105,-0.35450851742799072,-0.15016073945288855,-0.2400743493872384,-0.0031031661015003403,0.41918401447435216,0.43097241893721128,-0.29971070784764992,0.013165580341592431,-0.48225676314905286,0.31333830952644348],[-0.36827069208646812,-0.44694762083391365,-0.27214290166894595,-0.013651762288063737,0.052897859355434763,0.69058588116119313,0.44535212757686782,0.3730811087259403,-0.39904988906346256,0.22836582824898266,-0.37092706514522433,0.33904413972049952,-0.46057054586708546],[-0.14518003448533512,-0.16575096727969749,-0.35098457876903322,0.41237091857319075,-0.67393191679380826,-0.12815399946024017,-0.10303593394036092,-0.19667576705416037,-0.5754062735351424,-0.54986749332087748,0.063129778020083904,-0.1554816490970552,0.30505114234983921],[0.39672768296053018,-0.16857301976842184,0.4804279043028753,-0.27835056455495455,-0.17399073848500862,0.25627589193483197,-0.079134130757301996,-0.11692885706511635,0.27261345658140879,-0.42675729858378564,0.30785040813498199,-0.053446243749931455,0.0063937308732420206],[-0.21034733597499627,0.062053709470977374,-0.17626246327844766,-0.66309517258467787,0.61696461427956828,0.31709585315547867,0.089428747591252106,0.08312694568497439,-0.07658677724810932,0.080905759055167448,0.46344306040555239,0.36322668590582907,-0.28459216095507145]],"type":2},{"size":14.0,"activation":0,"bias":[-0.2709064021768669,-0.23179774816458423,0.22180823573842653,-0.095660461469863844,0.077017686308051198,0.028719796209285619,-0.0091333772211025371,-0.011178685240447517,-0.23297420322584605,-0.094251627425352758,0.27010317319072785,-0.13907845853517448,0.31795131706322238,0.15998375735556086],"weights":[[-0.35923854066059002,0.3304279273344824,0.2475133971342196,0.51463647146088387,-0.38411916168096144,0.38398955245191863,0.00053630943410108711,0.42724867666761068,0.095813395651057398,0.12109397336530187,-0.62729574893601225,0.56530087666896478,0.3869402973819524,0.077538089128211141],[-0.0078784385261435191,-0.18772691561840477,-0.50393136705582342,-0.35087320282123985,0.045256059930349354,0.10216286147013308,-0.034930797209963171,-0.1930980685353279,0.13775765722927943,0.25763676684039338,0.10992042903788388,-0.033427263693883991,0.60904065357831616,-0.30763614666648209],[0.59658780321168414,-0.012484822276358762,-0.14342079742501176,0.045689639477059271,0.39345887427528714,0.34788763879798362,0.61924657134028771,-0.13064904300495986,-0.30127289440793298,-0.09931742561360199,0.156305803861469,-0.22956061317895857,-0.46297697324926651,-0.074045684188604355],[0.47695406388801842,-0.18977713450168568,-0.28941682560058946,0.037732674507424242,0.05493694484544296,0.010684498182187488,0.08798560407012701,0.313549246173352,-0.21800721095874911,0.27202564968106641,-0.38417409978806971,0.57595037031918739,0.093803287024299298,-0.39959766855463386],[0.23813045604154473,0.22955804263552029,0.59373609033102792,0.30957904401545722,-0.050651525858168726,0.01335644852680469,0.44310526395216582,0.11428670815502603,0.021660136608406926,-0.061896418081596516,0.43315787349206686,0.36027579621722294,-0.27747576476695635,0.18115984462201595],[-0.12215349822926025,-0.039792021034906346,-0.30016957632265989,-0.36860893392004074,-0.31760404721523322,-0.25619467456204198,0.34615590341078745,-0.27844483346678317,-0.11855792529570559,-0.55126289497750502,-0.23102531211761135,-0.50948748978786162,-0.34443002987653032,-0.16693887044675648],[-0.15784340019027393,-0.085155547183627889,-0.22307905068310602,-0.12666780784726148,-0.25651446883566681,-0.26170382566439609,-0.3785822346465042,0.078191450694575892,-0.47483724597220622,-0.59925526851167299,-0.092883154340088384,0.48400784347206355,-0.46833007784560321,0.49201884097419679],[-0.042016238011419786,0.10991509241983294,-0.65953439139450576,0.43138476159423583,0.48789452137115119,-0.19903092292137448,-0.41553604229042923,-0.063002285364394423,-0.41613480157529315,0.43761945143652459,-0.43033070403151208,-0.28818405349428461,-0.1438130739020804,-0.42414610926061869],[-0.12948332222489023,0.29544214352965359,0.54477466666760543,0.4064947169615577,0.46698929690135016,-0.091627476882810421,0.55751477706246078,-0.099800547314807864,-0.037864331187059494,0.51302477744718389,0.046895713874449338,0.22079063762289783,-0.56503051998404175,0.27587920264340937],[0.77178201595010842,0.26235708413024744,0.061942326007410883,0.25506720118535053,-0.36874228645736973,0.26276021996823451,0.62299706972514601,0.19753792714327575,-0.12814533715446791,-0.72470028189631774,-0.080691373785957782,0.10994061679579312,-0.40903373433277013,0.37107918178662658],[-0.026903921353320315,0.14658647089265286,0.0088486647047102823,0.3413778520623843,0.18147963568568226,-0.03926384363944331,-0.0057823564670979721,-0.41288086085890741,0.26744021954635772,0.12543897884587446,-0.40453085052780796,0.012005780901139004,-0.011292550188178808,-0.0810129230376333],[0.25508438257190091,-0.063600359248618288,0.033311045266066985,0.3321112884643177,-0.070993259825433197,-0.26201283941976722,-0.084430112419649997,0.34514378723067546,-0.19038959357577065,-0.46268796425933639,-0.017782915085554143,-0.24284582354438802,-0.31817170836031439,0.41355946101248264],[-0.20710590459716807,0.5246341308609892,0.45456330782423426,0.1409781863478323,0.30490669598492481,-0.52016488530052196,-0.38477513702586297,-0.19479688575491305,-0.27544187839453416,0.1152392245549709,-0.19826106762203075,0.076616346839194521,-0.17288250109491249,-0.36233846936374903],[0.72666838973139714,0.34779956128758688,-0.14862550797561802,0.56220337324465308,-0.1639241939006994,-0.18860561901703479,0.0040135844051837968,0.16489102249654636,0.19406626317339631,0.21442116358938318,-0.25420872382198767,-0.19018379006845254,0.20337479687606297,0.30933364783413708]],"type":2},{"size":15.0,"activation":0,"bias":[0.28029865176416929,-0.2453124294492105,0.097503357563788695,0.32594956480587534,-0.10530528522096574,-0.16313030112224325,-0.033713385735948863,0.15506400824834904,-0.28207548960112044,0.036902316578974345,-0.12830916490095362,-0.12646970367990437,0.02325560887965062,-0.16968193079344926,-0.17383436724854009],"weights":[[0.083118698627998464,0.60910288201955454,-0.53896944844163963,-0.46057427799950046,-0.027027934265012619,-0.16269762939152616,-0.56219257123768318,0.24993316079179448,-0.08797090468617777,0.62927159889911621,-0.38203841687490547,-0.26935868507872029,0.59294006618671113,-0.16984559733420612,0.47210926306433976],[0.65696109515304368,0.14348117323592313,-0.29669769463129342,-0.15664513904601329,0.055276850859324114,0.50490392078024648,-0.51426024879639354,-0.33041146301353963,-0.5980085134785621,-0.26977980246456951,0.21905344362991552,-0.20198732274584477,-0.33677615024770302,-0.16035436328810954,-0.37711055995896459],[-0.25957922242892284,0.38943225274483362,0.35306227030542986,0.54424280556539695,0.007761155577997364,-0.052935153857494407,0.1045713415276259,-0.049701669691130469,0.35451197527038558,-0.41791171624946094,-0.36442996020428836,0.28350914234605934,0.12592334843861563,-0.44672232649909954,0.25681850570254028],[-0.22923931663235028,0.31305406105394168,0.17603788744968671,-0.36855233285886535,-0.38795161770967146,0.069964697994291766,-0.19316831259056924,0.51454575959903515,0.24052009814418857,-0.42599900428205717,0.43826062087590523,-0.49358730534091594,0.25960644717017811,-0.2894978441639493,0.10100277629680932],[0.3436074505342791,-0.38554602170983959,0.033562345023577397,-0.2040584788657725,0.37148190684927013,-0.17084203836197656,0.36887260265648381,-0.48871925617257761,-0.53997388497615861,0.618269969628503,0.12703306721212962,-0.81726274018175915,-0.097136142567420952,0.3526322924749305,-0.11717506614513695],[0.41688047935875744,-0.73184580051650594,-0.46969143447466188,-0.33693680543142068,-0.33478898076650981,0.26133032245561472,-0.31014481652838494,-0.34482266722867883,-0.5275041873039058,-0.44003821476983518,-0.041349786296486835,-0.21305765091752027,-0.28542405160143969,-0.23769206974655391,0.19305721903219819],[-0.084788242019712912,0.13678847521233065,-0.3597034850654503,-0.28093085526799161,-0.38571528513605391,0.036799735870833183,-0.55995235020605227,-0.39536676635034385,-0.55447508076826713,0.48029121011185161,-0.50556853463873264,0.13730557406631608,0.53436517713591458,-0.46322755460006493,0.095689957262948155],[0.17831584551682073,-0.23280228373905026,0.031293721602608786,0.17827304363250734,-0.25729155825451017,0.42217965879477559,-0.48138622450331836,0.23027236716200905,0.071154924469689532,0.047132821989556165,-0.11014219422203803,-0.39134501483601819,-0.10343951081857083,-0.24451671773257355,0.15346561069600284],[0.056599561246112005,-0.059908453725899286,-0.43850632387523836,-0.2085435313731431,-0.19133521888405081,-0.43671159805109078,-0.3557724904920907,-0.20280250311829154,0.11623354507610204,-0.10098722532081104,0.090830344728504542,0.18768085069333518,0.21895240924631548,-0.41142644465590522,0.31031347322277725],[-0.22812452538559833,0.41147202355166279,-0.57591113531030724,-0.065416967396934839,-0.24068365684710441,0.033555830266947556,0.5593993634978931,-0.056467883804192161,0.47007918743106242,-0.35615927015431226,-0.53752873678070812,0.13888511232721307,-0.45610457453255859,-0.052590642658372724,-0.068495858460664749],[0.71820596129943926,-0.52417993317047762,-0.52868052791493636,0.21613185715240743,0.34883686549651122,0.1513653666184594,-0.59337846025824559,-0.2648710132017732,0.47800312192179262,-0.23190026750477657,-0.068224577391520158,0.58975743528765934,0.45805345495541899,0.54717049401253459,-0.25092023238539696],[0.25191334251624847,0.95567023609454427,-0.65306496668917435,-0.33315765021989741,0.59436256303141533,-0.57344051421619935,-0.39720946906755372,0.3167274191665152,0.015095051747436368,0.26479878857731814,0.035682515812416819,-0.351258976822719,-0.2249790306172024,0.14873705881026883,0.33527170750312507],[-0.15630293262811995,0.034070512838661679,0.57718595169484632,0.43990162163662416,-0.57510972473149502,0.36910644943825899,0.41091758828610175,0.26896492320112886,-0.30127495948846139,-0.66376542692693574,-0.19049747939221562,-0.31038472145174939,0.20181232657283549,-0.45985996637182919,-0.45559906307607889],[-0.16344702053504687,-0.73493604493017006,0.14072477911598982,0.091819567432006283,0.099862531616042055,0.14470408035442228,-0.24829643112296862,0.025360132778684291,0.25044451410261298,0.4703971968094508,-0.38483592805142203,0.23044044009409839,-0.12897011170784636,0.27649748721159995,-0.29295092658139765],[-0.23838230700232088,-0.70861404696789876,0.26518477581751859,-0.67950814952452976,0.20585858670684198,0.22927483937392631,-0.031543532848979018,0.059434279144431147,-0.22957059136591829,0.014357712085669182,-0.4723437649818758,0.48011309838232891,-0.074744941735019305,-0.32966646450882142,0.090337654110044241]],"type":2},{"size":16.0,"activation":0,"bias":[-0.11468344523260988,-0.16275873711332683,0.28734572413998344,-0.026373208755006344,-0.061347846227387613,0.059926783150682825,-0.062092226082459102,-0.13091763080097737,-0.31425403377351668,-0.23021293090966843,-0.0087278793659061674,0.061234767371788644,-0.29569146655499934,0.17372021519578992,0.15335557601414626,0.072618458780149581],"weights":[[-0.19340460669559734,0.39936275996578235,0.070639160651092769,-0.1609749627299607,-0.2377247397291164,-0.078210257537042083,-0.33401975980959836,0.28373476248855384,0.058956981549660337,0.0045921935296307087,0.22285855856413656,-0.1057045630955448,-0.57759939165165031,-0.29929999654802181,-0.32174360777872307,0.16451514372602105],[-0.054869642403597631,-0.21900715481489902,-0.37936224246397615,-0.11906414149018626,-0.40679885808688904,-0.0069282183516770519,0.43138324882835144,-0.60241956638482719,-0.0075442526520540787,-0.4324048618258286,0.22621288807131357,0.19251852674099307,0.16642792494346689,-0.076425047097727683,-0.014482520744204558,0.14322808524593711],[0.64949116039400312,-0.53403978451776002,0.080979776301731726,-0.16059828028393291,-0.072315995066116245,-0.41344641150596217,0.20071888386582326,0.069517658871288107,-0.27999071934570863,-0.27554575752777355,0.38764662584289916,-0.24870549505266043,-0.21197339599952106,0.63001090630888934,-0.42703977661517756,-0.39808263955637813],[0.10253118427780764,0.21218278453685341,-0.10475420226342982,-0.18585418881227572,-0.14791292140260334,0.49618770083412533,0.16565570418412487,0.3343352201456824,-0.41962294121583305,0.28816112127465504,-0.092022989789644849,-0.13435846692261602,0.36042691225496432,0.61489766541558011,-0.32651495667174463,0.16044543473981321],[-0.65507404043960082,0.087957263564070104,-0.067362533509731315,-0.40653643725439914,0.15879804667706296,0.44108709535871937,-0.96214872022159392,0.22060576294238371,-0.56006597940810021,-0.55437405614492796,0.21646492394308248,0.32803752084262672,0.47163125906139608,0.64730022173374879,0.44816231055806083,-0.035366727039217949],[-0.28592122862425939,-0.50688170854623116,-0.31933200130549561,-0.15817777851596476,0.49772389209518836,0.28621325001431003,-0.18536958199925729,-0.02506073832201465,0.23738514220652482,-0.4356486231802652,0.13865130706690254,0.62280680767570928,-0.21269975288771092,0.27742560391624771,-0.10819015976662436,0.31094527780078351],[-0.49278023610512411,-0.068659540147831072,-0.38798206560313703,0.25038782028791806,-0.016339556885262355,-0.5289295452895264,-0.4476891622630258,0.4022336925535151,-0.0095071012713014921,0.15724237567434718,-0.51317674430708093,-0.40817721194898088,0.62978114468666391,0.57249224645085617,0.68253325040762625,0.35148707521148026],[-0.13339861048075058,-0.75833971498223629,0.47575370028304559,-0.17180759476497759,0.56267170016964274,0.046035591460143542,0.48548280626535428,-0.38058599426100648,0.47514432768958309,-0.58900953023694458,0.054129572038849258,0.45512790598285707,-0.021581107992678934,0.52505967344778293,-0.44495984745211897,-0.098568606888875365],[0.19576860671862961,0.36419743134950605,0.11162595944789551,0.2481435450849433,0.089806149732321483,0.34814513014008597,-0.40627064735007784,0.068291827241579728,-0.024187386905153582,-0.27370182017485301,-0.19620810473337769,0.34801546559979513,0.046483492606009105,0.069259187787150261,0.13779146102567513,-0.34715151763521135],[0.18070229317992928,0.72626003621766955,0.082097091320902121,0.098953003274897727,-0.47659968867277092,-0.41523174246152245,-0.47102273303394504,0.040289741108814919,0.12705417832359672,0.02845578927546738,-0.028347393137713284,0.66509776245802665,0.34802981797295318,0.19170783571898939,-0.3592501961408805,-0.35235189739614725],[-0.17579819889739157,0.17882967857023083,0.5446100096590818,0.35430004050955188,-0.60763342785959451,-0.23661095670424409,-0.43216672172769904,0.084414420075093699,0.44526216782008621,0.48831017953964584,-0.106489019409443,0.1993219038750976,-0.43861871342795594,0.1651284725839893,-0.5788475007905316,-0.36714462749660015],[0.13167511128820475,0.35707485284966745,0.38268993556499481,0.36489831517760951,-0.53186318789608766,0.57229764906068636,-0.20591260917174314,-0.80235432488843794,-0.22947624237587055,-0.25863710776592297,0.18233908272348343,-0.58185021111120783,0.17476450291151807,0.023522667086993625,-0.26887276053428649,0.10756938671693206],[-0.0012283077059934353,-0.42893269948661333,-0.59249017753017474,-0.4301411601093908,0.55135929336150491,0.1992238255807508,0.066427286174148281,-0.61590434320891885,0.12878024103119973,0.22660453013144419,0.28490992864593867,0.072635054392740109,-0.2571169902880987,0.30832949844809876,-0.25796922191977506,0.27905889414250851],[-0.32351707395787049,0.5748263810854406,-0.51678027442035579,0.098981724005813371,-0.11986472304289546,-0.46545067877508695,-0.63823368838677808,-0.064188189931834783,0.48681651995517322,0.052313499261314692,0.11800483580368261,-0.036938960046196991,0.11928206267766654,0.13416556246578695,-0.053488618343447647,0.32953517627902329],[0.18679118232491121,-0.24320908662242191,-0.043951605313147117,0.11587225792308645,0.18143088923146336,-0.26848049503751104,-0.49093451207814126,0.083035620975618563,-0.16177997509017586,0.3261854548441866,0.038374680255850162,0.64681610064891459,-0.57131104021333168,0.15546622745692723,-0.53712690806016317,0.20422513061203063],[0.51514875919558101,0.040904091394816856,0.073324510976672169,0.16909532127901913,0.16614233648714918,0.36485117025052505,-0.44630510618910202,0.34637095006803664,0.37742373443208627,0.35597846257189919,-0.36425479591513676,-0.023480971952279432,-0.28163359406404193,-0.25151740143386031,0.5106706971675159,0.17938329861499369]],"type":2},{"size":15.0,"activation":0,"bias":[-0.095672487163295336,0.03697819590878984,0.023644129180659841,0.027067437653119392,0.34467526509426533,0.018674743740508939,-0.15534659180479748,-0.195263956754158,0.026369661220038927,0.21860879906763647,0.16830889418721201,-0.29550292994206157,-0.088730877631654326,0.010964545682072576,-0.092426693374291088],"weights":[[0.58332255516511711,-0.30581755149178202,-0.58214914513131033,-0.27804050739233699,0.26371572095279899,-0.66248179043022282,0.16106784866501891,0.70386371895670885,-0.03108252894133328,0.57686329625546928,-0.49038233750810223,-0.3761574624137331,0.23354786736890679,0.21415967177910111,0.25123811741669982,-0.15492638100869954],[-0.42048939541603125,-0.26499170004700617,-0.33809724126011126,0.54334185513046873,0.43878940515841047,0.13110827828757465,0.57653143508049365,0.041412620957319957,0.44099295390769844,-0.37511213907040675,-0.1138615523185581,0.37475857641547922,-0.5287889934207004,-0.24628967998859785,0.51557718165839717,-0.10037499945921202],[-0.61188871593214589,-0.12003995365463202,-0.53584361623351784,-0.52741117164492612,-0.095178304513295509,0.025030897725373487,-0.2539605704446633,-0.10567583401687443,0.26919317737532167,-0.002633436368778358,0.095459495956699059,-0.35028039069535843,-0.25568482895692191,-0.30386536533944297,0.42923258733314773,0.013903604249159512],[-0.40084100771695375,0.047967493605489492,-0.57923925923183561,0.37107175309831897,0.46745508594127982,0.26087850944449514,-0.37429929752523705,-0.49660920687019822,0.1273333277211835,-0.085485955669234254,0.18369393615052104,0.46082665675009299,-0.21276490286303062,-0.28888421586714691,0.30985719709036241,-0.10658055781697232],[0.16410036279199028,-0.16552571857658527,-0.17428695833620916,0.2852741053141653,-0.28506110367054754,-0.44360686310877406,-0.54731229135766635,0.28247033652228609,0.10798972155588374,0.42161033543137222,0.076056699426844704,0.60079662979270054,-0.25726896474137911,-0.1261728739148627,0.29840647974051532,-0.013196260019515932],[0.069600138568009007,-0.099062695574636261,0.024929350068171888,0.052936989879235626,-0.1798926206957549,-0.52715741402469574,-0.34361124874403076,0.574998090459655,-0.42078755624902725,-0.273204514545699,-0.22528104081439476,-0.085118868245432772,0.17074845840844022,-0.21246996637433771,-0.21583826227424052,-0.060990957785397801],[-0.36130960065871487,0.29116988576017322,0.3019873956870287,-0.28659985988400877,-0.69105642562111236,-0.047384044450397268,0.19811665235397713,-0.67023541952172916,0.22965511817485096,0.21881891998462366,-0.70019782063240843,0.070387924956157838,-0.39586563774384553,-0.016041444273044686,0.31679979812353859,-0.15933190244870887],[-0.74878738429086888,-0.086018367319678268,0.21453536572555704,-0.27594778030800327,-0.20644143240526314,-0.27174217365371683,0.1555466550774873,0.079564743842929608,-0.04957954196259378,0.16270010496489701,0.019202288643767433,0.14499916872009636,-0.53182337616259856,0.15023685197035469,0.4248081987630577,-0.023253103833024716],[0.10539799660133814,-0.012181088225916018,0.10309112615572909,0.14934967290610079,-0.0084711119129012163,-0.42992293595025938,-0.19918489085820815,-0.072867180568476492,0.31962357900726301,0.040384136689826822,-0.30707932264233634,0.017023508291070719,-0.070229115551337595,-0.23443729014135906,0.60501342361792931,-0.11799112879981602],[-0.4488712463248522,-0.096717482392365717,-0.10662394187102718,0.33027220714216438,0.67983736385280913,-0.19566901349152119,-0.58782019197940816,0.43649848008528347,0.2023454678896815,0.21468785533681511,0.051718680843090038,0.098192302444949697,-0.26995805840007958,-0.37704979336510108,0.19103642038380103,0.26322988927674784],[-0.68374345524236579,0.0038287283231814712,0.5795841740444303,0.048933928261200563,-0.3321663236586998,0.34433362914870164,0.0039296985417604444,0.15928660049103202,0.33376986389358831,0.61614847196886935,0.0022978387959301655,0.047869243528693962,0.37331757126686482,0.0041881893978764767,-0.24175945081127187,-0.18456997964841626],[-0.17535705115956565,0.27268764447731286,0.64387446398536352,-0.87465679623807469,0.54291694263927637,-0.15029043800197545,0.27327419487449028,0.4874943339979898,0.10466559251770374,-0.33764591697293034,-0.30714733518039194,-0.29459250455722225,0.55548407855133208,-0.11244450254676243,0.55983736056524014,-0.13475832789825898],[0.054144166167825469,-0.071472078505903466,-0.10138291311139863,0.20818533627626801,-0.1300864800810814,0.071688913085187489,-0.36940498673977951,0.44248969405579069,0.066516736696163786,0.35437046005701017,0.28432934900745754,0.31017659640560558,-0.133086870337526,-0.39051286892965437,-0.032996315738807097,0.36541831035166977],[0.24203145610479018,0.01836677780685322,-0.012275993091364679,0.31401177446047462,0.058465825691819275,-0.4774046442161004,0.074255075911059953,-0.077356414586926492,-0.20096328355682391,-0.050950849807510794,0.26836245617208376,0.38556531364719071,-0.55300101193909856,-0.15993942071994147,0.027245785637448269,0.022975524965052813],[-0.23072358412668106,0.59172498936454454,-0.34290283056907356,-0.10641074429266151,-0.058881643479689973,-0.0018034989014267949,-0.37565126321588954,-0.13911537898704399,-0.042314368973796555,-0.70689442714365824,-0.24019006462146836,-0.37548985384715106,0.47922473076730965,-0.44271298761169126,-0.44983935424437133,-0.048552449007208162]],"type":2},{"size":14.0,"activation":0,"bias":[0.05154063064294561,-0.095576906961699307,0.083090312868977584,0.06304514108225702,0.00057893572064740551,-0.10035603371759257,0.19824197557133941,0.15653398203973967,0.0020889497827738523,-0.065800176495686202,-0.2550901487252365,0.057282637897878873,0.10008570498476421,-0.31705056299145035],"weights":[[0.10011512091693778,-0.69954829286783937,-0.069769290955737223,-0.11936884006485346,-0.43921351568462946,-0.0047719158449520405,-0.75339254984011272,0.17959896692385277,-0.56447246327685818,0.41176538301942273,-0.19147745809517802,0.28593567663803704,0.085249300589784971,0.63860811634299663,-0.029743148482715184],[-0.041691263963778827,0.12259755732181174,0.28225666810758415,0.12481812953638531,-0.63483474848171062,0.050274305837228882,-0.40710579144457981,-0.4264392852969468,-0.034105706863726187,-0.4388867632920545,0.77852974208382264,-0.07031968049394588,-0.16865661931534612,-0.12864471442997441,0.19813890359054012],[-0.45963268265128121,-0.29587534167803831,0.35534561453697588,-0.36122827600066859,0.50440257853207471,0.18094802510924635,-0.35864252137020225,0.22671726792119445,0.18160900550273557,0.23492249270590657,-0.10189564737801746,-0.32950536246411499,0.020585521608591069,0.59075519660487785,-0.17386957747861748],[-0.13175564759100478,-0.261096485822151,-0.10241847723412016,0.2451357398182154,-0.092289329928656419,-0.072115948768332605,-0.34783703887835155,0.31451972535190481,0.16796605337100723,0.10513482485897839,0.36678621998056776,0.3967473323922604,-0.42462175908498473,-0.83625923476802788,0.17232771368697283],[-0.53389792139952363,-0.036015276756758502,-0.060476201375325479,0.23305080653168259,-0.44054329005380477,0.20034476887124286,0.18563548431110877,0.15288190910592669,-0.45946884315460929,0.060901200243582275,-0.15266574554145337,0.13559254438926771,0.31174759819172321,-0.21153501921022935,-0.036895636608824132],[0.36257243374362585,-0.39649968530982738,-0.3977244986469548,-0.08566579932346946,0.70792309462403258,0.50381931408618885,0.28683913315025472,-0.69329470392937487,-0.30345319588979097,0.34793569786474121,-0.27920231642201532,0.14617301856167614,-0.14040148174079745,-0.4656178089386474,0.035408346801996275],[0.52459614499782514,-0.26545460318525632,-0.16708979371935129,0.39334353214129808,-0.15293205203798912,-0.39326872782160832,-0.27130879910973205,-0.24250409012349938,0.37003472529041265,-0.20281164046376943,0.13796426407992848,-0.11956294237636032,-0.0070826182793826062,0.44262015125714238,0.13115756189761058],[-0.39140269100976488,0.45543246372292434,-0.20584061537248399,-0.36587848889020586,-0.68507376174442458,0.51178917007831226,-0.31047302480166172,-0.85266586707284053,-0.45082068066423142,-0.19111804749195768,-0.20963000359013681,0.078574003816271804,0.45394553828053191,-0.2347578097538402,0.082884222048645262],[-0.58145964573137454,0.34476464932784434,-0.0085668352805078202,-0.48544278575107463,-0.037801800056671074,0.092030226274703975,0.56369976020107693,0.39494261790066942,-0.63707216482919959,0.1677627143667389,0.24869716971181335,0.55997007605619753,-0.18995191704792275,0.062051161359995659,-0.074818608217562241],[-0.62634240328023849,0.2249212014892448,-0.037332001871739878,-0.22814697329575817,0.39757650380022824,0.083685147523259132,-0.1833941314245264,-0.51774202440554895,0.060884539152805998,0.14624093773153921,-0.11370022188561654,0.032970645045861544,0.12568197775011264,0.35456922592905649,-0.017690312415361432],[0.010221172217279653,-0.16696839890132353,-0.48423263398619987,0.067739519954969435,0.11999750967758395,0.32440865649531286,-0.35892782461519052,-0.21082784706105787,0.20791027606464918,0.11281693416958058,-0.013464132047568793,0.20733876361511647,0.11341129342404505,-0.26945899736136197,-0.19668261972566448],[-0.43828940624371149,0.10400860828347508,0.0097081042764087244,0.3659826812023918,0.069915562604243531,0.52155593111179765,-0.039906938755884747,-0.35796149052989967,-0.49407881005977611,0.67222829963701503,0.054359213765710582,-0.33343882385951779,0.30815804547630249,0.04318962402331334,-0.24623552270854521],[0.60314117154416946,0.31263150890047342,0.25540607941026477,-0.28786315898100545,0.43700527501602965,0.033422737379247947,0.73316425327522061,0.27983096535007168,-0.082743978174403321,-0.34167277103289972,-0.019677017526701181,0.38221058704579869,-0.52625605418657262,-0.5506857504354169,-0.1176504779451837],[-0.70396610419886818,0.27331402987241749,0.31023515987520417,0.69931182466136932,0.52449926662879676,0.22625826469312119,0.16648141786766546,0.54544165634239727,0.13687542069082456,-0.43797298224953324,0.26843753931733472,0.28531578915814554,0.29618432721123089,-0.55042641336408749,-0.037673409481843334]],"type":2},{"size":13.0,"activation":0,"bias":[0.30989474431922037,0.0046167748173077741,-0.1574901713679234,0.056586949607978242,0.13249782930438719,-0.27929548775156343,0.011776793403550943,0.10693795075019202,-0.14380494501131275,0.084378620730713005,0.016316005500654387,0.32378086847253151,-0.27001473861436054],"weights":[[-0.096285604145377873,-0.065394890348737383,0.22107918638736002,-0.31923233058303591,0.38723543233548596,0.068522782555470924,0.22244437706967204,0.15595293958050507,0.15874563200709718,-0.046670248700926682,0.44260940119003245,0.18646739259983094,1.142277166756491,0.18342172257602216],[0.20573129734955733,0.089690851982062031,0.49938594998481367,-0.51224575494726499,0.018089061637098558,0.38112576211181787,-0.11806812134571376,0.21059934399090702,0.28173244632159661,-0.067601996269077036,0.53885513283933228,0.264645658492421,-0.34943815502958986,0.16381610295424859],[-0.10846334984215597,0.46417189156947042,-0.41698383886677537,-0.73272242167654134,0.21838567270276454,0.23867736641007162,-0.1197268433279047,-0.18839701010535165,0.25719188547072314,0.29451587199543905,0.2102317250706256,0.42478674943558881,-0.20589196221902961,-0.05787434104830029],[0.005139632187783752,-0.1200361424125731,-0.20983351941530898,0.39978644065558916,-0.75189120160726186,-0.18690480376904212,0.50766645583634584,-0.61645945255023726,0.043262517151112359,0.38401806818631795,-0.6643632849740484,-0.0099395993258804341,0.15931735103018582,0.073758838623762119],[-0.41382217189297077,-0.25998187221897151,-0.13411580377879245,-0.55602355416864158,0.41868906068305173,0.27177984332665794,-0.30489426893182092,-0.29979986106355982,-0.22928761357441552,-0.08037776211587086,0.068356573063259318,0.27278178221546112,0.39542440844389304,-0.31969330390604839],[0.18094036014129719,-0.0054591671532640482,0.0051463189503798863,-0.10058011365123096,-0.077577327651282141,-0.27004485335201034,0.13148465869637832,-0.36724272427459559,-0.17354722069576384,-0.27302131563114623,0.29680627853920061,-0.50939042557651792,-0.13193446039532614,0.040121582948292274],[0.33379671498822677,-0.51280813820660121,0.17988828151797259,-0.41665108299503734,-0.19462816461920746,0.012003557427475855,-0.24817525057432541,-0.25248133886605501,0.29169733221332222,0.44476632986217723,-0.088669923481841911,0.11985993055316305,-0.16304715066837772,-0.15256128745774428],[-0.52536152967562288,0.23743334523712595,-0.035924439172570904,0.20427950153437757,0.56681973990363399,0.21203634325104456,-0.15440240979815523,-0.41018817128303153,-0.22810282078261182,-0.20636870848635835,0.010751462172095896,0.0093403038351486251,0.04970010764275988,-0.11436534095555548],[0.27305312880625326,-0.20468300091102709,-0.42392511833459157,0.50934579324908547,0.20731370414296782,0.44717366004983589,0.4300886897277087,0.012863216707482937,-0.27908040028375891,-0.43525349404352398,-0.02451045620876053,0.94174019187688818,0.3926178796589373,0.11701675028850639],[0.43975304867451387,0.003380369469523449,0.51457421831165751,-0.33598473676169904,-0.10653231580120817,-0.37760693287166452,0.6184628392600765,-0.080598261129731952,0.48724362429852291,0.24269499821277954,0.47359691015444694,0.14601834629041452,0.49381338179421919,0.23339773857966067],[-0.22815914250289404,-0.053607980633775379,0.43487441576085989,0.53086071292869763,-0.03608092575954891,0.39240515520796199,0.16420754498181245,-0.028606205545365776,-0.030271519068628541,0.17182346266694365,-0.62852440237067653,-0.39910897609467305,-0.393158239464586,0.098388416115194555],[-0.49876348540497317,0.22349378032609818,-0.64296112451702347,-0.33527409596679109,-0.25911018331845598,0.27242181005266797,0.24258452590554958,-0.16439241241974129,-0.30372255126324788,0.095639452850446102,0.12976209818695983,0.14061820357417071,0.060265403656909841,0.043511873409152066],[-0.73333839146109936,0.46785640412010249,-0.0043615540241201539,0.21259859133822218,0.6412661232985557,0.52447744020881759,-0.35226233942434193,-0.065792108004291847,-0.44817066206596795,-0.23070712375765048,0.4733021610509604,0.27789830344418687,-0.048339093215763643,-0.16907432927129171]],"type":2},{"size":12.0,"activation":0,"bias":[0.25595453779523575,-0.075214864164590833,-0.12001453491238251,-0.049945610327025297,-0.09623219951366388,0.10499657747646174,0.29376038920134306,-0.27581130635924633,0.080146720875054603,0.2467369631957263,0.046381646065662342,0.18546324749787643],"weights":[[-0.18502438379141192,0.068961644778028131,-0.31768031041758765,-0.50780085181817425,-0.46442491951708992,-0.41514946356415749,-0.35290983218389244,-0.21569006380625075,0.11796247229911386,0.43967938560061137,0.25887307548895483,0.3355994895069549,0.11662277218575277],[0.069842203985899728,0.059190689868604068,-0.26594523695918432,-0.27025857757776972,0.23510012871896233,-0.41110595010841888,0.11138565116561949,0.031876917167877127,0.21943823419511319,0.48849111077686147,-0.15416662293175856,0.083144724524269534,0.11311679608499012],[0.40187929103771841,0.3862423347433408,-0.012367378932734319,-0.4483044476962339,-0.52433890000606576,0.20160071610783534,0.1957478731032461,0.088218272912005596,-0.15393493146014706,-0.22096947240332765,0.073020075267801701,-0.60043537690614646,0.054259627967451984],[0.021212063760807122,-0.18532166751412055,0.43460848189579965,-0.3243488423681507,-0.54370877326155709,0.2227341837187608,0.47650841760449109,-0.19708120640056831,0.16037423560706271,-0.35829438503831629,-0.3048175062704831,0.16869026341165105,0.42363864842181403],[0.40419084599862498,0.4886827871979525,0.21846449364908044,0.052798633088047303,-0.23006886525079612,0.22441385361986838,0.15248709936936694,-0.034614212873081376,0.26031128334502374,-0.44163787988635406,-0.11976249637703103,0.49181798489143452,0.0085237791109830201],[-0.32025237135899576,0.33384751042351124,0.34438087296982611,-0.0091609139430026063,-0.075843150150030847,-0.092208259729668507,-0.17844458114666245,0.0067224928022672631,-0.2202467785247913,0.59036133100899535,-0.3972451014413188,-0.30641361619656277,-0.050167837257807421],[-0.044776722829168052,-0.64276778041074678,0.21614146897879738,0.20780410325465104,-0.28136429167042187,0.25534831340735159,0.2767325134327015,0.63687641848189125,-0.15231607776135211,0.52712380587433794,0.20015503371755278,-0.51212052962742738,0.20960139913174014],[0.32884022746235136,0.46042403885473804,-0.25042132478207346,-0.055700324416781459,0.16853667086921634,-0.13889947955496609,0.43372616824383536,-0.1081914298577855,0.039382641899089049,0.068562988188738613,-0.073643430241694049,0.23083934629336,-0.015887126227219911],[0.081587267545983194,-0.21553091757309939,-0.3990178816393018,-0.26541750461483998,0.12884638091859721,0.27811459452224274,-0.054684218624606734,0.076803381560991216,0.64420342922521134,-0.20150300869718202,-0.23916441670929398,0.049620334276308707,-0.17575703320403893],[0.06748666317202151,0.023986725875486947,-0.38187580127579462,0.44711719889504209,-0.22847940538699424,-0.41549616576172416,0.22416604844232402,-0.32005661461502322,0.18981721809754773,0.44577648654269675,-0.50325020066152015,-0.28325064018679169,0.087627224226792699],[0.30702243131585427,0.061752286252255248,0.082705240119248666,-0.49661371646448987,-0.16377114934225878,-0.28048849745964016,0.092624684659143308,0.43728953702064843,0.45726067039494711,-0.43280361301576109,0.075019846598928158,0.16703853464685381,-0.095931365387514234],[0.45826961616985507,-0.057771153477951857,-0.021684801131486894,-0.087774846469983486,0.49533496519861114,-0.11661601010399561,-0.42282746626685069,-0.026921870391815941,-0.40284008779252567,-0.37662564828681444,-0.22588233202695868,0.21041160251324376,0.022946619804327661]],"type":2},{"size":11.0,"activation":0,"bias":[0.085375751756752535,-0.48940558523250127,0.070106463814154293,-0.15537843433829646,0.23866462394284707,-0.2739862177645167,-0.34645515228932106,0.1067155603164186,0.11747253743621212,0.013483043024316497,0.0014726015304525608],"weights":[[0.31439162813747917,0.16271067525881036,0.029546542409807502,0.49721186907341081,-0.10806320247861242,0.24849164628734194,0.24143668986546496,0.099314385711525899,-0.60434729697493217,0.27495029777288443,0.20719095910278465,0.087137202179680295],[-0.1104399356991053,-0.35194896429156264,0.48941829701885564,-0.41213003604672854,0.17430600405049829,0.34780132375967998,-0.018942678965007231,-0.016694324056928327,0.58315599513550587,0.58755886635432653,-0.36606163905312622,0.2470675441808998],[-0.25349186861887574,0.17156000446217756,-0.36450377188933386,0.27344125024043031,0.48527819536005457,-0.17793567121960227,-0.64837043122077964,0.10757818057822685,-0.55708510711168246,-0.11187064750430485,0.057820090021317216,0.16787676017110548],[-0.61772938941915811,-0.35437060985403762,-0.22642419450295465,-0.63013064142006137,0.58918385736333845,0.11148420867820577,-0.085044748572011858,0.14870446949886776,0.17552193858971199,0.36279122241462275,-0.32575363197984791,0.13238478714910654],[0.7881164123024792,-0.13498460467904816,0.46161687733295076,0.15137948069721474,-0.180938641615212,0.11223717736390731,-0.16870664968776211,-0.26206955261528486,-0.051344376020133496,0.18269691912457342,0.21775309589691461,0.10979140453661485],[0.34083003597644473,-0.37298798503664643,-0.47932198137976234,0.12883203418614958,0.088589845358704525,0.27553179500934977,0.25483210051432253,0.14697911401900152,-0.48352498092067725,-0.55208670536987492,0.25889169356785707,0.11149175218927367],[0.28144584344079099,-0.21442029398865994,0.23208012918320783,0.046553295468911543,-0.031757224776471693,0.14836690008329842,-0.68279594137954214,-0.21680971724912523,-0.36317349086826045,-0.11906801525192962,-0.25821660573594279,0.006459721177816409],[-0.24345378503203402,-0.55789789441041648,-0.4705254156546046,-0.074494952627768063,-0.14336164563583831,0.81479138487329106,0.067972566441943272,0.43915913904396203,0.19348093369354821,0.3594070463286092,0.44137972740146031,-0.10320023540407419],[0.16416724300011987,-0.12328988621321822,0.14397719323014224,-0.56616286337065225,-0.50816596733716635,-0.2800239983325204,0.21420648028142755,0.38843372590529418,-0.23855100129731002,0.094352275095880053,0.47676198565711575,-0.4841527315570664],[0.031664633831630151,-0.094449798998733403,0.26646560480818143,0.71508709936402748,0.057244823376337725,0.38105661642427241,0.32033757686304554,0.17265497089984519,-0.43781853168581919,0.094653987636168807,0.33734557139376803,-0.12615872130729261],[0.26619566521917776,-0.25888653862600525,-0.50524743907464054,-0.0097715012015154139,-0.15045612993650131,-0.19078858797748882,0.2238931099573771,0.11990750634421901,-0.23672721608231473,0.22573683413987364,-0.10507959130840999,-0.37036816429967678]],"type":2},{"size":5.0,"activation":0,"bias":[0.18832067558541893,0.23326182989403604,-0.029755219230428336,-0.096290460467959416,-0.3231585478689521],"weights":[[0.35769958757174503,0.16160052850221596,-0.2140978151684006,-0.26708304709754888,0.50271384374548989,-0.19134072992019358,0.042073148135095793,0.20135956920062506,0.072042712485417743,0.035091230850666774,0.1523260239046067],[0.26752390113659197,-0.44204560699251788,-0.49634836358949552,0.25013849494357909,-0.14896961123682562,0.041994421615575719,-0.28949257207723961,0.13349609181595345,0.14058936122183996,0.23939064515754579,-0.3462059201144923],[-0.66914956175101303,-0.52174957172324266,-0.40321931007939082,-0.25200679459609088,-0.51111101531734071,-0.17520018303145965,-0.32508400799085696,-0.2703666442011794,0.067188771916553369,-0.034829893872762738,-0.0082961120860030532],[0.046160356616601346,-0.43850343401543795,0.48913256926772486,-0.21641189688506224,0.028072877883290211,-0.011617948965479897,0.0070699428704877887,-0.27809252118381367,0.0085647773059705987,-0.087040064989899607,0.029828129699453709],[-0.35991512925674529,-0.10847946682013565,0.62767661571192235,0.050217104150603278,0.51985916071260974,-0.11648511899014315,0.26112252530020974,-0.15883989025217793,0.049687161774685004,-0.27532672236983968,-0.074184732694799721]],"type":2}]